digraph Tree {
node [shape=box, style="filled, rounded", color="black", fontname="helvetica"] ;
edge [fontname="helvetica"] ;
0 [label="bill_length_mm <= 42.35\ngini = 0.638\nsamples = 333\nvalue = [146, 119, 68]\nclass = Adelie", fillcolor="#fcefe6"] ;
1 [label="bill_depth_mm <= 15.1\ngini = 0.057\nsamples = 138\nvalue = [134, 3, 1]\nclass = Adelie", fillcolor="#e6853f"] ;
0 -> 1 [labeldistance=2.5, labelangle=45, headlabel="True"] ;
2 [label="gini = 0.0\nsamples = 3\nvalue = [0, 3, 0]\nclass = Gentoo", fillcolor="#39e581"] ;
1 -> 2 ;
3 [label="gini = 0.015\nsamples = 135\nvalue = [134, 0, 1]\nclass = Adelie", fillcolor="#e5823a"] ;
1 -> 3 ;
4 [label="bill_depth_mm <= 16.35\ngini = 0.524\nsamples = 195\nvalue = [12, 116, 67]\nclass = Gentoo", fillcolor="#b3f5cf"] ;
0 -> 4 [labeldistance=2.5, labelangle=-45, headlabel="False"] ;
5 [label="gini = 0.0\nsamples = 107\nvalue = [0, 107, 0]\nclass = Gentoo", fillcolor="#39e581"] ;
4 -> 5 ;
6 [label="gini = 0.391\nsamples = 88\nvalue = [12, 9, 67]\nclass = Chinstrap", fillcolor="#a470ec"] ;
4 -> 6 ;
}